<?xml version="1.0"?>
<opencv_storage>
<stage4>
  <maxWeakCount>5</maxWeakCount>
  <stageThreshold>-5.6636148691177368e-01</stageThreshold>
  <weakClassifiers>
    <_>
      <internalNodes>
        0 -1 366795 -1.9526232779026031e-01</internalNodes>
      <leafValues>
        5.3333336114883423e-01 -6.7368423938751221e-01</leafValues></_>
    <_>
      <internalNodes>
        0 -1 1142369 -5.5495563894510269e-02</internalNodes>
      <leafValues>
        4.6711280941963196e-01 -6.1698144674301147e-01</leafValues></_>
    <_>
      <internalNodes>
        0 -1 1180675 -3.7361301947385073e-03</internalNodes>
      <leafValues>
        6.7290896177291870e-01 -4.3836522102355957e-01</leafValues></_>
    <_>
      <internalNodes>
        0 -1 807152 -4.1967689990997314e-02</internalNodes>
      <leafValues>
        7.7307069301605225e-01 -3.5067927837371826e-01</leafValues></_>
    <_>
      <internalNodes>
        0 -1 2826921 9.3846837989985943e-04</internalNodes>
      <leafValues>
        4.6629822254180908e-01 -6.8201977014541626e-01</leafValues></_></weakClassifiers></stage4>
</opencv_storage>
