<?xml version="1.0"?>
<opencv_storage>
<stage10>
  <maxWeakCount>5</maxWeakCount>
  <stageThreshold>-9.8426610231399536e-01</stageThreshold>
  <weakClassifiers>
    <_>
      <internalNodes>
        0 -1 2895700 -2.2143265141494339e-06</internalNodes>
      <leafValues>
        2.0300751924514771e-01 -7.2789114713668823e-01</leafValues></_>
    <_>
      <internalNodes>
        0 -1 2945576 -3.5409811971476302e-06</internalNodes>
      <leafValues>
        5.2549070119857788e-01 -4.9776247143745422e-01</leafValues></_>
    <_>
      <internalNodes>
        0 -1 789325 -7.3297959752380848e-03</internalNodes>
      <leafValues>
        6.0299837589263916e-01 -4.3170785903930664e-01</leafValues></_>
    <_>
      <internalNodes>
        0 -1 567014 -3.2262350941891782e-06</internalNodes>
      <leafValues>
        6.2292683124542236e-01 -4.8461613059043884e-01</leafValues></_>
    <_>
      <internalNodes>
        0 -1 543529 -1.1257356163696386e-05</internalNodes>
      <leafValues>
        3.7619885802268982e-01 -7.9644030332565308e-01</leafValues></_></weakClassifiers></stage10>
</opencv_storage>
